<?xml version="1.0"?>
<opencv_storage>
<cascade type_id="opencv-haar-classifier">
  <size>
    24 24</size>
  <stages>
    <_>
      <!-- stage 0 -->
      <trees>
        <_>
          <!-- tree 0 -->
          <_>
            <!-- root node -->
            <feature>
              <rects>
                <_>
                  15 5 6 12 -1.</_>
                <_>
                  15 8 6 6 2.</_></rects>
              <tilted>0</tilted></feature>
            <threshold>1.3138120062649250e-002</threshold>
            <left_val>-7.7013242244720459e-001</left_val>
            <right_val>9.0341609716415405e-001</right_val></_></_>
        <_>
          <!-- tree 1 -->
          <_>
            <!-- root node -->
            <feature>
              <rects>
                <_>
                  3 5 10 12 -1.</_>
                <_>
                  3 9 10 4 3.</_></rects>
              <tilted>0</tilted></feature>
            <threshold>1.9431129097938538e-002</threshold>
            <left_val>-8.1071782112121582e-001</left_val>
            <right_val>8.0509591102600098e-001</right_val></_></_>
        <_>
          <!-- tree 2 -->
          <_>
            <!-- root node -->
            <feature>
              <rects>
                <_>
                  1 16 12 8 -1.</_>
                <_>
                  1 16 6 4 2.</_>
                <_>
                  7 20 6 4 2.</_></rects>
              <tilted>0</tilted></feature>
            <threshold>2.0137229934334755e-002</threshold>
            <left_val>-5.0290632247924805e-001</left_val>
            <right_val>9.3103861808776855e-001</right_val></_></_></trees>
      <stage_threshold>-6.4981150627136230e-001</stage_threshold>
      <parent>-1</parent>
      <next>-1</next></_>
    <_>
      <!-- stage 1 -->
      <trees>
        <_>
          <!-- tree 0 -->
          <_>
            <!-- root node -->
            <feature>
              <rects>
                <_>
                  3 2 18 9 -1.</_>
                <_>
                  3 5 18 3 3.</_></rects>
              <tilted>0</tilted></feature>
            <threshold>-7.5584992766380310e-002</threshold>
            <left_val>1.</left_val>
            <right_val>-6.5059912204742432e-001</right_val></_></_>
        <_>
          <!-- tree 1 -->
          <_>
            <!-- root node -->
            <feature>
              <rects>
                <_>
                  3 6 6 4 -1.</_>
                <_>
                  3 8 6 2 2.</_></rects>
              <tilted>0</tilted></feature>
            <threshold>6.3875662162899971e-003</threshold>
            <left_val>-5.2801537513732910e-001</left_val>
            <right_val>8.4418588876724243e-001</right_val></_></_>
        <_>
          <!-- tree 2 -->
          <_>
            <!-- root node -->
            <feature>
              <rects>
                <_>
                  19 10 2 14 -1.</_>
                <_>
                  19 17 2 7 2.</_></rects>
              <tilted>0</tilted></feature>
            <threshold>-2.5195879861712456e-003</threshold>
            <left_val>6.1986511945724487e-001</left_val>
            <right_val>-7.1297651529312134e-001</right_val></_></_></trees>
      <stage_threshold>-5.5874949693679810e-001</stage_threshold>
      <parent>0</parent>
      <next>-1</next></_>
    <_>
      <!-- stage 2 -->
      <trees>
        <_>
          <!-- tree 0 -->
          <_>
            <!-- root node -->
            <feature>
              <rects>
                <_>
                  16 1 8 1 -1.</_>
                <_>
                  20 1 4 1 2.</_></rects>
              <tilted>0</tilted></feature>
            <threshold>-2.4969449732452631e-003</threshold>
            <left_val>8.4537261724472046e-001</left_val>
            <right_val>-6.4071512222290039e-001</right_val></_></_>
        <_>
          <!-- tree 1 -->
          <_>
            <!-- root node -->
            <feature>
              <rects>
                <_>
                  10 1 1 6 -1.</_>
                <_>
                  10 1 1 3 2.</_></rects>
              <tilted>1</tilted></feature>
            <threshold>6.7196302115917206e-003</threshold>
            <left_val>-5.4394382238388062e-001</left_val>
            <right_val>7.7675300836563110e-001</right_val></_></_>
        <_>
          <!-- tree 2 -->
          <_>
            <!-- root node -->
            <feature>
              <rects>
                <_>
                  9 2 9 3 -1.</_>
                <_>
                  12 3 3 1 9.</_></rects>
              <tilted>0</tilted></feature>
            <threshold>2.5103960651904345e-003</threshold>
            <left_val>-5.9139627218246460e-001</left_val>
            <right_val>6.3649958372116089e-001</right_val></_></_></trees>
      <stage_threshold>-5.4815918207168579e-001</stage_threshold>
      <parent>1</parent>
      <next>-1</next></_>
    <_>
      <!-- stage 3 -->
      <trees>
        <_>
          <!-- tree 0 -->
          <_>
            <!-- root node -->
            <feature>
              <rects>
                <_>
                  6 0 9 12 -1.</_>
                <_>
                  6 3 9 6 2.</_></rects>
              <tilted>0</tilted></feature>
            <threshold>-1.9809709861874580e-002</threshold>
            <left_val>6.0575538873672485e-001</left_val>
            <right_val>-7.8252327442169189e-001</right_val></_></_>
        <_>
          <!-- tree 1 -->
          <_>
            <!-- root node -->
            <feature>
              <rects>
                <_>
                  18 0 6 1 -1.</_>
                <_>
                  21 0 3 1 2.</_></rects>
              <tilted>0</tilted></feature>
            <threshold>-1.7480830429121852e-003</threshold>
            <left_val>6.5153849124908447e-001</left_val>
            <right_val>-6.7689341306686401e-001</right_val></_></_>
        <_>
          <!-- tree 2 -->
          <_>
            <!-- root node -->
            <feature>
              <rects>
                <_>
                  1 15 12 8 -1.</_>
                <_>
                  1 15 6 4 2.</_>
                <_>
                  7 19 6 4 2.</_></rects>
              <tilted>0</tilted></feature>
            <threshold>2.0225049927830696e-002</threshold>
            <left_val>-4.7372359037399292e-001</left_val>
            <right_val>8.8907927274703979e-001</right_val></_></_>
        <_>
          <!-- tree 3 -->
          <_>
            <!-- root node -->
            <feature>
              <rects>
                <_>
                  5 6 3 6 -1.</_>
                <_>
                  6 8 1 2 9.</_></rects>
              <tilted>0</tilted></feature>
            <threshold>3.1671440228819847e-003</threshold>
            <left_val>-4.6830061078071594e-001</left_val>
            <right_val>7.3325091600418091e-001</right_val></_></_>
        <_>
          <!-- tree 4 -->
          <_>
            <!-- root node -->
            <feature>
              <rects>
                <_>
                  14 2 9 1 -1.</_>
                <_>
                  17 5 3 1 3.</_></rects>
              <tilted>1</tilted></feature>
            <threshold>-4.0861261077225208e-003</threshold>
            <left_val>6.2399291992187500e-001</left_val>
            <right_val>-6.4737248420715332e-001</right_val></_></_></trees>
      <stage_threshold>-5.1883012056350708e-001</stage_threshold>
      <parent>2</parent>
      <next>-1</next></_>
    <_>
      <!-- stage 4 -->
      <trees>
        <_>
          <!-- tree 0 -->
          <_>
            <!-- root node -->
            <feature>
              <rects>
                <_>
                  0 0 6 3 -1.</_>
                <_>
                  3 0 3 3 2.</_></rects>
              <tilted>0</tilted></feature>
            <threshold>4.1087158024311066e-003</threshold>
            <left_val>-6.5803551673889160e-001</left_val>
            <right_val>8.9509552717208862e-001</right_val></_></_>
        <_>
          <!-- tree 1 -->
          <_>
            <!-- root node -->
            <feature>
              <rects>
                <_>
                  5 16 2 8 -1.</_>
                <_>
                  5 18 2 4 2.</_></rects>
              <tilted>0</tilted></feature>
            <threshold>2.7258549816906452e-003</threshold>
            <left_val>-4.5627200603485107e-001</left_val>
            <right_val>8.3151590824127197e-001</right_val></_></_>
        <_>
          <!-- tree 2 -->
          <_>
            <!-- root node -->
            <feature>
              <rects>
                <_>
                  15 18 5 6 -1.</_>
                <_>
                  15 20 5 2 3.</_></rects>
              <tilted>0</tilted></feature>
            <threshold>4.7557870857417583e-004</threshold>
            <left_val>-4.8678681254386902e-001</left_val>
            <right_val>7.2440552711486816e-001</right_val></_></_>
        <_>
          <!-- tree 3 -->
          <_>
            <!-- root node -->
            <feature>
              <rects>
                <_>
                  2 5 3 12 -1.</_>
                <_>
                  3 9 1 4 9.</_></rects>
              <tilted>0</tilted></feature>
            <threshold>9.5143448561429977e-003</threshold>
            <left_val>-6.4241522550582886e-001</left_val>
            <right_val>5.9113419055938721e-001</right_val></_></_>
        <_>
          <!-- tree 4 -->
          <_>
            <!-- root node -->
            <feature>
              <rects>
                <_>
                  8 4 8 6 -1.</_>
                <_>
                  8 4 4 3 2.</_>
                <_>
                  12 7 4 3 2.</_></rects>
              <tilted>0</tilted></feature>
            <threshold>2.3892889730632305e-003</threshold>
            <left_val>-4.7214579582214355e-001</left_val>
            <right_val>8.2196080684661865e-001</right_val></_></_></trees>
      <stage_threshold>-2.7091360092163086e-001</stage_threshold>
      <parent>3</parent>
      <next>-1</next></_>
    <_>
      <!-- stage 5 -->
      <trees>
        <_>
          <!-- tree 0 -->
          <_>
            <!-- root node -->
            <feature>
              <rects>
                <_>
                  17 11 3 6 -1.</_>
                <_>
                  17 14 3 3 2.</_></rects>
              <tilted>0</tilted></feature>
            <threshold>-5.1567079499363899e-003</threshold>
            <left_val>7.9390770196914673e-001</left_val>
            <right_val>-6.0210758447647095e-001</right_val></_></_>
        <_>
          <!-- tree 1 -->
          <_>
            <!-- root node -->
            <feature>
              <rects>
                <_>
                  11 2 8 4 -1.</_>
                <_>
                  11 4 8 2 2.</_></rects>
              <tilted>0</tilted></feature>
            <threshold>-1.0284190066158772e-002</threshold>
            <left_val>7.1830499172210693e-001</left_val>
            <right_val>-5.5932688713073730e-001</right_val></_></_>
        <_>
          <!-- tree 2 -->
          <_>
            <!-- root node -->
            <feature>
              <rects>
                <_>
                  14 0 3 5 -1.</_>
                <_>
                  15 0 1 5 3.</_></rects>
              <tilted>0</tilted></feature>
            <threshold>2.5916509330272675e-003</threshold>
            <left_val>4.4014841318130493e-001</left_val>
            <right_val>-9.3132197856903076e-001</right_val></_></_>
        <_>
          <!-- tree 3 -->
          <_>
            <!-- root node -->
            <feature>
              <rects>
                <_>
                  12 20 3 3 -1.</_>
                <_>
                  13 20 1 3 3.</_></rects>
              <tilted>0</tilted></feature>
            <threshold>-1.1677669826894999e-003</threshold>
            <left_val>-8.3223330974578857e-001</left_val>
            <right_val>4.0367171168327332e-001</right_val></_></_></trees>
      <stage_threshold>-4.1145288944244385e-001</stage_threshold>
      <parent>4</parent>
      <next>-1</next></_>
    <_>
      <!-- stage 6 -->
      <trees>
        <_>
          <!-- tree 0 -->
          <_>
            <!-- root node -->
            <feature>
              <rects>
                <_>
                  10 0 4 9 -1.</_>
                <_>
                  7 3 4 3 3.</_></rects>
              <tilted>1</tilted></feature>
            <threshold>-5.6952390819787979e-002</threshold>
            <left_val>9.3660348653793335e-001</left_val>
            <right_val>-5.0549262762069702e-001</right_val></_></_>
        <_>
          <!-- tree 1 -->
          <_>
            <!-- root node -->
            <feature>
              <rects>
                <_>
                  0 2 8 14 -1.</_>
                <_>
                  0 9 8 7 2.</_></rects>
              <tilted>0</tilted></feature>
            <threshold>-1.7112249508500099e-002</threshold>
            <left_val>-7.0090478658676147e-001</left_val>
            <right_val>5.6348347663879395e-001</right_val></_></_>
        <_>
          <!-- tree 2 -->
          <_>
            <!-- root node -->
            <feature>
              <rects>
                <_>
                  6 1 8 6 -1.</_>
                <_>
                  6 4 8 3 2.</_></rects>
              <tilted>0</tilted></feature>
            <threshold>-2.2306619212031364e-002</threshold>
            <left_val>6.9652730226516724e-001</left_val>
            <right_val>-5.6386840343475342e-001</right_val></_></_>
        <_>
          <!-- tree 3 -->
          <_>
            <!-- root node -->
            <feature>
              <rects>
                <_>
                  6 16 1 6 -1.</_>
                <_>
                  6 16 1 3 2.</_></rects>
              <tilted>1</tilted></feature>
            <threshold>4.8874309286475182e-003</threshold>
            <left_val>-5.4723131656646729e-001</left_val>
            <right_val>7.4853402376174927e-001</right_val></_></_></trees>
      <stage_threshold>-1.0531090497970581e+000</stage_threshold>
      <parent>5</parent>
      <next>-1</next></_>
    <_>
      <!-- stage 7 -->
      <trees>
        <_>
          <!-- tree 0 -->
          <_>
            <!-- root node -->
            <feature>
              <rects>
                <_>
                  6 1 4 6 -1.</_>
                <_>
                  6 4 4 3 2.</_></rects>
              <tilted>0</tilted></feature>
            <threshold>-1.2622579932212830e-002</threshold>
            <left_val>6.7292010784149170e-001</left_val>
            <right_val>-6.1026591062545776e-001</right_val></_></_>
        <_>
          <!-- tree 1 -->
          <_>
            <!-- root node -->
            <feature>
              <rects>
                <_>
                  2 12 8 6 -1.</_>
                <_>
                  2 15 8 3 2.</_></rects>
              <tilted>0</tilted></feature>
            <threshold>5.7204440236091614e-004</threshold>
            <left_val>5.3052341938018799e-001</left_val>
            <right_val>-7.6189118623733521e-001</right_val></_></_>
        <_>
          <!-- tree 2 -->
          <_>
            <!-- root node -->
            <feature>
              <rects>
                <_>
                  12 0 12 1 -1.</_>
                <_>
                  18 0 6 1 2.</_></rects>
              <tilted>0</tilted></feature>
            <threshold>-4.7407760284841061e-003</threshold>
            <left_val>5.3100067377090454e-001</left_val>
            <right_val>-6.7060577869415283e-001</right_val></_></_>
        <_>
          <!-- tree 3 -->
          <_>
            <!-- root node -->
            <feature>
              <rects>
                <_>
                  9 16 6 3 -1.</_>
                <_>
                  9 17 6 1 3.</_></rects>
              <tilted>0</tilted></feature>
            <threshold>3.3083870075643063e-003</threshold>
            <left_val>-4.1530859470367432e-001</left_val>
            <right_val>8.4996318817138672e-001</right_val></_></_>
        <_>
          <!-- tree 4 -->
          <_>
            <!-- root node -->
            <feature>
              <rects>
                <_>
                  1 6 4 2 -1.</_>
                <_>
                  1 7 4 1 2.</_></rects>
              <tilted>0</tilted></feature>
            <threshold>-1.0094569734064862e-004</threshold>
            <left_val>-6.0166651010513306e-001</left_val>
            <right_val>5.7839697599411011e-001</right_val></_></_></trees>
      <stage_threshold>-6.7806798219680786e-001</stage_threshold>
      <parent>6</parent>
      <next>-1</next></_>
    <_>
      <!-- stage 8 -->
      <trees>
        <_>
          <!-- tree 0 -->
          <_>
            <!-- root node -->
            <feature>
              <rects>
                <_>
                  4 4 15 3 -1.</_>
                <_>
                  9 4 5 3 3.</_></rects>
              <tilted>0</tilted></feature>
            <threshold>2.4951929226517677e-002</threshold>
            <left_val>-4.8108080029487610e-001</left_val>
            <right_val>9.9999731779098511e-001</right_val></_></_>
        <_>
          <!-- tree 1 -->
          <_>
            <!-- root node -->
            <feature>
              <rects>
                <_>
                  5 16 14 6 -1.</_>
                <_>
                  5 19 14 3 2.</_></rects>
              <tilted>0</tilted></feature>
            <threshold>-7.7958041802048683e-003</threshold>
            <left_val>-5.7036471366882324e-001</left_val>
            <right_val>5.8671087026596069e-001</right_val></_></_>
        <_>
          <!-- tree 2 -->
          <_>
            <!-- root node -->
            <feature>
              <rects>
                <_>
                  6 0 12 1 -1.</_>
                <_>
                  9 0 6 1 2.</_></rects>
              <tilted>0</tilted></feature>
            <threshold>9.2849612701684237e-004</threshold>
            <left_val>-5.2446401119232178e-001</left_val>
            <right_val>7.0030790567398071e-001</right_val></_></_>
        <_>
          <!-- tree 3 -->
          <_>
            <!-- root node -->
            <feature>
              <rects>
                <_>
                  19 1 4 8 -1.</_>
                <_>
                  20 1 2 8 2.</_></rects>
              <tilted>0</tilted></feature>
            <threshold>1.1241409811191261e-004</threshold>
            <left_val>-5.5491548776626587e-001</left_val>
            <right_val>7.4758219718933105e-001</right_val></_></_>
        <_>
          <!-- tree 4 -->
          <_>
            <!-- root node -->
            <feature>
              <rects>
                <_>
                  13 8 11 4 -1.</_>
                <_>
                  13 9 11 2 2.</_></rects>
              <tilted>0</tilted></feature>
            <threshold>1.1921960394829512e-003</threshold>
            <left_val>-6.5613359212875366e-001</left_val>
            <right_val>5.6731492280960083e-001</right_val></_></_></trees>
      <stage_threshold>-4.0643450617790222e-001</stage_threshold>
      <parent>7</parent>
      <next>-1</next></_>
    <_>
      <!-- stage 9 -->
      <trees>
        <_>
          <!-- tree 0 -->
          <_>
            <!-- root node -->
            <feature>
              <rects>
                <_>
                  14 0 3 1 -1.</_>
                <_>
                  15 0 1 1 3.</_></rects>
              <tilted>0</tilted></feature>
            <threshold>-3.6799150984734297e-004</threshold>
            <left_val>-7.6774227619171143e-001</left_val>
            <right_val>4.6484288573265076e-001</right_val></_></_>
        <_>
          <!-- tree 1 -->
          <_>
            <!-- root node -->
            <feature>
              <rects>
                <_>
                  3 20 20 4 -1.</_>
                <_>
                  8 20 10 4 2.</_></rects>
              <tilted>0</tilted></feature>
            <threshold>3.9046321064233780e-002</threshold>
            <left_val>-4.4614389538764954e-001</left_val>
            <right_val>9.1201418638229370e-001</right_val></_></_>
        <_>
          <!-- tree 2 -->
          <_>
            <!-- root node -->
            <feature>
              <rects>
                <_>
                  13 2 2 2 -1.</_>
                <_>
                  14 2 1 2 2.</_></rects>
              <tilted>0</tilted></feature>
            <threshold>6.6045939456671476e-004</threshold>
            <left_val>4.9233341217041016e-001</left_val>
            <right_val>-8.5927271842956543e-001</right_val></_></_>
        <_>
          <!-- tree 3 -->
          <_>
            <!-- root node -->
            <feature>
              <rects>
                <_>
                  22 7 2 4 -1.</_>
                <_>
                  22 8 2 2 2.</_></rects>
              <tilted>0</tilted></feature>
            <threshold>-4.6572880819439888e-004</threshold>
            <left_val>-7.0284628868103027e-001</left_val>
            <right_val>5.3630298376083374e-001</right_val></_></_>
        <_>
          <!-- tree 4 -->
          <_>
            <!-- root node -->
            <feature>
              <rects>
                <_>
                  3 1 16 8 -1.</_>
                <_>
                  3 5 16 4 2.</_></rects>
              <tilted>0</tilted></feature>
            <threshold>-8.1632591784000397e-002</threshold>
            <left_val>7.0577138662338257e-001</left_val>
            <right_val>-5.4874891042709351e-001</right_val></_></_></trees>
      <stage_threshold>-8.5301947593688965e-001</stage_threshold>
      <parent>8</parent>
      <next>-1</next></_>
    <_>
      <!-- stage 10 -->
      <trees>
        <_>
          <!-- tree 0 -->
          <_>
            <!-- root node -->
            <feature>
              <rects>
                <_>
                  14 0 10 1 -1.</_>
                <_>
                  19 0 5 1 2.</_></rects>
              <tilted>0</tilted></feature>
            <threshold>-5.4134437814354897e-003</threshold>
            <left_val>6.5713328123092651e-001</left_val>
            <right_val>-5.4572200775146484e-001</right_val></_></_>
        <_>
          <!-- tree 1 -->
          <_>
            <!-- root node -->
            <feature>
              <rects>
                <_>
                  1 16 4 1 -1.</_>
                <_>
                  2 17 2 1 2.</_></rects>
              <tilted>1</tilted></feature>
            <threshold>1.6289539635181427e-003</threshold>
            <left_val>5.4498308897018433e-001</left_val>
            <right_val>-6.6235172748565674e-001</right_val></_></_>
        <_>
          <!-- tree 2 -->
          <_>
            <!-- root node -->
            <feature>
              <rects>
                <_>
                  16 2 3 2 -1.</_>
                <_>
                  17 2 1 2 3.</_></rects>
              <tilted>0</tilted></feature>
            <threshold>1.0100150248035789e-003</threshold>
            <left_val>4.4041600823402405e-001</left_val>
            <right_val>-8.4083938598632813e-001</right_val></_></_>
        <_>
          <!-- tree 3 -->
          <_>
            <!-- root node -->
            <feature>
              <rects>
                <_>
                  17 0 6 8 -1.</_>
                <_>
                  17 0 3 4 2.</_>
                <_>
                  20 4 3 4 2.</_></rects>
              <tilted>0</tilted></feature>
            <threshold>8.4687937051057816e-003</threshold>
            <left_val>-5.8498078584671021e-001</left_val>
            <right_val>6.5877360105514526e-001</right_val></_></_>
        <_>
          <!-- tree 4 -->
          <_>
            <!-- root node -->
            <feature>
              <rects>
                <_>
                  8 0 3 1 -1.</_>
                <_>
                  9 0 1 1 3.</_></rects>
              <tilted>0</tilted></feature>
            <threshold>3.9039889816194773e-004</threshold>
            <left_val>4.4213509559631348e-001</left_val>
            <right_val>-7.8061407804489136e-001</right_val></_></_>
        <_>
          <!-- tree 5 -->
          <_>
            <!-- root node -->
            <feature>
              <rects>
                <_>
                  6 8 3 1 -1.</_>
                <_>
                  7 8 1 1 3.</_></rects>
              <tilted>0</tilted></feature>
            <threshold>-2.6282449834980071e-004</threshold>
            <left_val>-7.5403350591659546e-001</left_val>
            <right_val>5.2408719062805176e-001</right_val></_></_></trees>
      <stage_threshold>-4.8023068904876709e-001</stage_threshold>
      <parent>9</parent>
      <next>-1</next></_>
    <_>
      <!-- stage 11 -->
      <trees>
        <_>
          <!-- tree 0 -->
          <_>
            <!-- root node -->
            <feature>
              <rects>
                <_>
                  12 22 8 2 -1.</_>
                <_>
                  16 22 4 2 2.</_></rects>
              <tilted>0</tilted></feature>
            <threshold>-3.0110708903521299e-003</threshold>
            <left_val>6.9109392166137695e-001</left_val>
            <right_val>-5.2482628822326660e-001</right_val></_></_>
        <_>
          <!-- tree 1 -->
          <_>
            <!-- root node -->
            <feature>
              <rects>
                <_>
                  4 12 17 2 -1.</_>
                <_>
                  4 13 17 1 2.</_></rects>
              <tilted>0</tilted></feature>
            <threshold>-3.6050109192728996e-003</threshold>
            <left_val>7.8512150049209595e-001</left_val>
            <right_val>-4.4188201427459717e-001</right_val></_></_>
        <_>
          <!-- tree 2 -->
          <_>
            <!-- root node -->
            <feature>
              <rects>
                <_>
                  0 0 2 4 -1.</_>
                <_>
                  1 0 1 4 2.</_></rects>
              <tilted>0</tilted></feature>
            <threshold>5.8599392650648952e-004</threshold>
            <left_val>-5.2129787206649780e-001</left_val>
            <right_val>6.3708877563476563e-001</right_val></_></_></trees>
      <stage_threshold>-3.2961949706077576e-001</stage_threshold>
      <parent>10</parent>
      <next>-1</next></_>
    <_>
      <!-- stage 12 -->
      <trees>
        <_>
          <!-- tree 0 -->
          <_>
            <!-- root node -->
            <feature>
              <rects>
                <_>
                  16 0 8 24 -1.</_>
                <_>
                  20 0 4 24 2.</_></rects>
              <tilted>0</tilted></feature>
            <threshold>-4.8655919730663300e-002</threshold>
            <left_val>8.4982228279113770e-001</left_val>
            <right_val>-3.5721629858016968e-001</right_val></_></_>
        <_>
          <!-- tree 1 -->
          <_>
            <!-- root node -->
            <feature>
              <rects>
                <_>
                  3 0 1 3 -1.</_>
                <_>
                  3 1 1 1 3.</_></rects>
              <tilted>0</tilted></feature>
            <threshold>-8.5707061225548387e-004</threshold>
            <left_val>-8.9147067070007324e-001</left_val>
            <right_val>3.9382550120353699e-001</right_val></_></_>
        <_>
          <!-- tree 2 -->
          <_>
            <!-- root node -->
            <feature>
              <rects>
                <_>
                  3 0 21 3 -1.</_>
                <_>
                  10 0 7 3 3.</_></rects>
              <tilted>0</tilted></feature>
            <threshold>2.8186509385704994e-002</threshold>
            <left_val>-5.6912118196487427e-001</left_val>
            <right_val>6.1968529224395752e-001</right_val></_></_>
        <_>
          <!-- tree 3 -->
          <_>
            <!-- root node -->
            <feature>
              <rects>
                <_>
                  0 12 2 2 -1.</_>
                <_>
                  0 13 2 1 2.</_></rects>
              <tilted>0</tilted></feature>
            <threshold>1.5294850163627416e-004</threshold>
            <left_val>4.5775479078292847e-001</left_val>
            <right_val>-7.0463252067565918e-001</right_val></_></_>
        <_>
          <!-- tree 4 -->
          <_>
            <!-- root node -->
            <feature>
              <rects>
                <_>
                  6 16 3 4 -1.</_>
                <_>
                  5 17 3 2 2.</_></rects>
              <tilted>1</tilted></feature>
            <threshold>2.4064818862825632e-003</threshold>
            <left_val>-5.3230708837509155e-001</left_val>
            <right_val>7.2609859704971313e-001</right_val></_></_></trees>
      <stage_threshold>-6.0706418752670288e-001</stage_threshold>
      <parent>11</parent>
      <next>-1</next></_>
    <_>
      <!-- stage 13 -->
      <trees>
        <_>
          <!-- tree 0 -->
          <_>
            <!-- root node -->
            <feature>
              <rects>
                <_>
                  7 5 6 4 -1.</_>
                <_>
                  9 7 2 4 3.</_></rects>
              <tilted>1</tilted></feature>
            <threshold>2.5233270600438118e-002</threshold>
            <left_val>-3.4658738970756531e-001</left_val>
            <right_val>9.1886007785797119e-001</right_val></_></_>
        <_>
          <!-- tree 1 -->
          <_>
            <!-- root node -->
            <feature>
              <rects>
                <_>
                  3 4 9 5 -1.</_>
                <_>
                  6 4 3 5 3.</_></rects>
              <tilted>0</tilted></feature>
            <threshold>-1.4477300457656384e-002</threshold>
            <left_val>7.8727412223815918e-001</left_val>
            <right_val>-3.1986409425735474e-001</right_val></_></_>
        <_>
          <!-- tree 2 -->
          <_>
            <!-- root node -->
            <feature>
              <rects>
                <_>
                  1 21 15 3 -1.</_>
                <_>
                  1 22 15 1 3.</_></rects>
              <tilted>0</tilted></feature>
            <threshold>1.6231490299105644e-003</threshold>
            <left_val>-3.9196160435676575e-001</left_val>
            <right_val>6.9006741046905518e-001</right_val></_></_>
        <_>
          <!-- tree 3 -->
          <_>
            <!-- root node -->
            <feature>
              <rects>
                <_>
                  12 0 12 2 -1.</_>
                <_>
                  12 1 12 1 2.</_></rects>
              <tilted>0</tilted></feature>
            <threshold>-1.5021699946373701e-003</threshold>
            <left_val>-6.5095508098602295e-001</left_val>
            <right_val>5.2633100748062134e-001</right_val></_></_>
        <_>
          <!-- tree 4 -->
          <_>
            <!-- root node -->
            <feature>
              <rects>
                <_>
                  19 15 2 7 -1.</_>
                <_>
                  19 15 1 7 2.</_></rects>
              <tilted>1</tilted></feature>
            <threshold>-6.7794229835271835e-003</threshold>
            <left_val>9.0116608142852783e-001</left_val>
            <right_val>-3.5726180672645569e-001</right_val></_></_>
        <_>
          <!-- tree 5 -->
          <_>
            <!-- root node -->
            <feature>
              <rects>
                <_>
                  17 0 3 3 -1.</_>
                <_>
                  18 0 1 3 3.</_></rects>
              <tilted>0</tilted></feature>
            <threshold>1.0859780013561249e-003</threshold>
            <left_val>3.9719960093498230e-001</left_val>
            <right_val>-8.9725661277770996e-001</right_val></_></_></trees>
      <stage_threshold>-6.7946219444274902e-001</stage_threshold>
      <parent>12</parent>
      <next>-1</next></_>
    <_>
      <!-- stage 14 -->
      <trees>
        <_>
          <!-- tree 0 -->
          <_>
            <!-- root node -->
            <feature>
              <rects>
                <_>
                  15 12 3 2 -1.</_>
                <_>
                  16 13 1 2 3.</_></rects>
              <tilted>1</tilted></feature>
            <threshold>9.5197348855435848e-004</threshold>
            <left_val>-3.9846861362457275e-001</left_val>
            <right_val>7.9955899715423584e-001</right_val></_></_>
        <_>
          <!-- tree 1 -->
          <_>
            <!-- root node -->
            <feature>
              <rects>
                <_>
                  3 0 2 2 -1.</_>
                <_>
                  3 0 1 2 2.</_></rects>
              <tilted>1</tilted></feature>
            <threshold>-2.1507969358935952e-004</threshold>
            <left_val>6.1546182632446289e-001</left_val>
            <right_val>-5.4939830303192139e-001</right_val></_></_>
        <_>
          <!-- tree 2 -->
          <_>
            <!-- root node -->
            <feature>
              <rects>
                <_>
                  8 3 8 7 -1.</_>
                <_>
                  10 3 4 7 2.</_></rects>
              <tilted>0</tilted></feature>
            <threshold>1.2896720319986343e-002</threshold>
            <left_val>-4.2370611429214478e-001</left_val>
            <right_val>8.1871360540390015e-001</right_val></_></_>
        <_>
          <!-- tree 3 -->
          <_>
            <!-- root node -->
            <feature>
              <rects>
                <_>
                  11 5 7 16 -1.</_>
                <_>
                  11 13 7 8 2.</_></rects>
              <tilted>0</tilted></feature>
            <threshold>-7.5565889477729797e-002</threshold>
            <left_val>-8.1406551599502563e-001</left_val>
            <right_val>4.2831858992576599e-001</right_val></_></_>
        <_>
          <!-- tree 4 -->
          <_>
            <!-- root node -->
            <feature>
              <rects>
                <_>
                  21 1 3 12 -1.</_>
                <_>
                  22 5 1 4 9.</_></rects>
              <tilted>0</tilted></feature>
            <threshold>-1.9407790154218674e-002</threshold>
            <left_val>-7.6336282491683960e-001</left_val>
            <right_val>4.4355070590972900e-001</right_val></_></_></trees>
      <stage_threshold>-5.7722771167755127e-001</stage_threshold>
      <parent>13</parent>
      <next>-1</next></_>
    <_>
      <!-- stage 15 -->
      <trees>
        <_>
          <!-- tree 0 -->
          <_>
            <!-- root node -->
            <feature>
              <rects>
                <_>
                  2 0 4 1 -1.</_>
                <_>
                  4 0 2 1 2.</_></rects>
              <tilted>0</tilted></feature>
            <threshold>6.6126912133768201e-004</threshold>
            <left_val>-5.8593082427978516e-001</left_val>
            <right_val>7.0600658655166626e-001</right_val></_></_>
        <_>
          <!-- tree 1 -->
          <_>
            <!-- root node -->
            <feature>
              <rects>
                <_>
                  0 2 20 20 -1.</_>
                <_>
                  0 12 20 10 2.</_></rects>
              <tilted>0</tilted></feature>
            <threshold>7.5099617242813110e-002</threshold>
            <left_val>5.7925122976303101e-001</left_val>
            <right_val>-7.2053688764572144e-001</right_val></_></_>
        <_>
          <!-- tree 2 -->
          <_>
            <!-- root node -->
            <feature>
              <rects>
                <_>
                  1 4 9 5 -1.</_>
                <_>
                  4 4 3 5 3.</_></rects>
              <tilted>0</tilted></feature>
            <threshold>-6.5382630564272404e-003</threshold>
            <left_val>6.7579412460327148e-001</left_val>
            <right_val>-4.8207488656044006e-001</right_val></_></_>
        <_>
          <!-- tree 3 -->
          <_>
            <!-- root node -->
            <feature>
              <rects>
                <_>
                  10 19 4 4 -1.</_>
                <_>
                  11 19 2 4 2.</_></rects>
              <tilted>0</tilted></feature>
            <threshold>3.1379798892885447e-003</threshold>
            <left_val>3.6308860778808594e-001</left_val>
            <right_val>-8.9715087413787842e-001</right_val></_></_>
        <_>
          <!-- tree 4 -->
          <_>
            <!-- root node -->
            <feature>
              <rects>
                <_>
                  0 13 8 5 -1.</_>
                <_>
                  2 13 4 5 2.</_></rects>
              <tilted>0</tilted></feature>
            <threshold>6.2184100970625877e-003</threshold>
            <left_val>-5.3231120109558105e-001</left_val>
            <right_val>6.2853050231933594e-001</right_val></_></_></trees>
      <stage_threshold>-7.9692357778549194e-001</stage_threshold>
      <parent>14</parent>
      <next>-1</next></_>
    <_>
      <!-- stage 16 -->
      <trees>
        <_>
          <!-- tree 0 -->
          <_>
            <!-- root node -->
            <feature>
              <rects>
                <_>
                  18 12 5 6 -1.</_>
                <_>
                  18 14 5 2 3.</_></rects>
              <tilted>0</tilted></feature>
            <threshold>1.7844469984993339e-003</threshold>
            <left_val>4.8792439699172974e-001</left_val>
            <right_val>-6.3155597448348999e-001</right_val></_></_>
        <_>
          <!-- tree 1 -->
          <_>
            <!-- root node -->
            <feature>
              <rects>
                <_>
                  0 1 16 1 -1.</_>
                <_>
                  4 1 8 1 2.</_></rects>
              <tilted>0</tilted></feature>
            <threshold>2.8916769661009312e-003</threshold>
            <left_val>-5.5254012346267700e-001</left_val>
            <right_val>5.3544789552688599e-001</right_val></_></_>
        <_>
          <!-- tree 2 -->
          <_>
            <!-- root node -->
            <feature>
              <rects>
                <_>
                  23 17 1 3 -1.</_>
                <_>
                  23 18 1 1 3.</_></rects>
              <tilted>0</tilted></feature>
            <threshold>6.2749558128416538e-004</threshold>
            <left_val>3.8072139024734497e-001</left_val>
            <right_val>-8.0504822731018066e-001</right_val></_></_>
        <_>
          <!-- tree 3 -->
          <_>
            <!-- root node -->
            <feature>
              <rects>
                <_>
                  19 17 1 3 -1.</_>
                <_>
                  19 18 1 1 3.</_></rects>
              <tilted>0</tilted></feature>
            <threshold>-5.1974988309666514e-004</threshold>
            <left_val>-9.0883600711822510e-001</left_val>
            <right_val>3.1539979577064514e-001</right_val></_></_></trees>
      <stage_threshold>-5.9273028373718262e-001</stage_threshold>
      <parent>15</parent>
      <next>-1</next></_>
    <_>
      <!-- stage 17 -->
      <trees>
        <_>
          <!-- tree 0 -->
          <_>
            <!-- root node -->
            <feature>
              <rects>
                <_>
                  7 3 14 6 -1.</_>
                <_>
                  7 5 14 2 3.</_></rects>
              <tilted>0</tilted></feature>
            <threshold>-4.9419850111007690e-002</threshold>
            <left_val>8.5688197612762451e-001</left_val>
            <right_val>-3.8595348596572876e-001</right_val></_></_>
        <_>
          <!-- tree 1 -->
          <_>
            <!-- root node -->
            <feature>
              <rects>
                <_>
                  6 15 1 4 -1.</_>
                <_>
                  6 16 1 2 2.</_></rects>
              <tilted>0</tilted></feature>
            <threshold>-1.0761270532384515e-003</threshold>
            <left_val>9.3489158153533936e-001</left_val>
            <right_val>-2.7689450979232788e-001</right_val></_></_>
        <_>
          <!-- tree 2 -->
          <_>
            <!-- root node -->
            <feature>
              <rects>
                <_>
                  9 22 12 1 -1.</_>
                <_>
                  13 22 4 1 3.</_></rects>
              <tilted>0</tilted></feature>
            <threshold>1.0624789865687490e-003</threshold>
            <left_val>-4.2458209395408630e-001</left_val>
            <right_val>6.8063682317733765e-001</right_val></_></_>
        <_>
          <!-- tree 3 -->
          <_>
            <!-- root node -->
            <feature>
              <rects>
                <_>
                  12 13 1 4 -1.</_>
                <_>
                  12 15 1 2 2.</_></rects>
              <tilted>0</tilted></feature>
            <threshold>1.0316260159015656e-004</threshold>
            <left_val>-3.9508581161499023e-001</left_val>
            <right_val>7.4436241388320923e-001</right_val></_></_>
        <_>
          <!-- tree 4 -->
          <_>
            <!-- root node -->
            <feature>
              <rects>
                <_>
                  3 10 2 6 -1.</_>
                <_>
                  3 10 1 3 2.</_>
                <_>
                  4 13 1 3 2.</_></rects>
              <tilted>0</tilted></feature>
            <threshold>-7.8903882240410894e-005</threshold>
            <left_val>7.0043569803237915e-001</left_val>
            <right_val>-5.4032438993453979e-001</right_val></_></_>
        <_>
          <!-- tree 5 -->
          <_>
            <!-- root node -->
            <feature>
              <rects>
                <_>
                  7 5 14 3 -1.</_>
                <_>
                  7 6 14 1 3.</_></rects>
              <tilted>0</tilted></feature>
            <threshold>-8.0282511189579964e-003</threshold>
            <left_val>8.6449617147445679e-001</left_val>
            <right_val>-3.1546780467033386e-001</right_val></_></_></trees>
      <stage_threshold>-1.1988600492477417e+000</stage_threshold>
      <parent>16</parent>
      <next>-1</next></_>
    <_>
      <!-- stage 18 -->
      <trees>
        <_>
          <!-- tree 0 -->
          <_>
            <!-- root node -->
            <feature>
              <rects>
                <_>
                  6 9 8 6 -1.</_>
                <_>
                  6 12 8 3 2.</_></rects>
              <tilted>0</tilted></feature>
            <threshold>-2.6115419343113899e-002</threshold>
            <left_val>1.</left_val>
            <right_val>-2.9857739806175232e-001</right_val></_></_>
        <_>
          <!-- tree 1 -->
          <_>
            <!-- root node -->
            <feature>
              <rects>
                <_>
                  18 2 5 21 -1.</_>
                <_>
                  18 9 5 7 3.</_></rects>
              <tilted>0</tilted></feature>
            <threshold>-8.7963938713073730e-003</threshold>
            <left_val>-8.2037138938903809e-001</left_val>
            <right_val>3.8873818516731262e-001</right_val></_></_>
        <_>
          <!-- tree 2 -->
          <_>
            <!-- root node -->
            <feature>
              <rects>
                <_>
                  6 4 12 4 -1.</_>
                <_>
                  10 4 4 4 3.</_></rects>
              <tilted>0</tilted></feature>
            <threshold>3.2919939607381821e-002</threshold>
            <left_val>-3.7290778756141663e-001</left_val>
            <right_val>8.8184952735900879e-001</right_val></_></_>
        <_>
          <!-- tree 3 -->
          <_>
            <!-- root node -->
            <feature>
              <rects>
                <_>
                  1 5 5 18 -1.</_>
                <_>
                  1 14 5 9 2.</_></rects>
              <tilted>0</tilted></feature>
            <threshold>-8.4299631416797638e-003</threshold>
            <left_val>5.4953628778457642e-001</left_val>
            <right_val>-5.2241057157516479e-001</right_val></_></_>
        <_>
          <!-- tree 4 -->
          <_>
            <!-- root node -->
            <feature>
              <rects>
                <_>
                  4 2 2 2 -1.</_>
                <_>
                  4 2 1 1 2.</_>
                <_>
                  5 3 1 1 2.</_></rects>
              <tilted>0</tilted></feature>
            <threshold>2.5184141122736037e-004</threshold>
            <left_val>4.9774950742721558e-001</left_val>
            <right_val>-6.3835752010345459e-001</right_val></_></_></trees>
      <stage_threshold>-3.7156820297241211e-001</stage_threshold>
      <parent>17</parent>
      <next>-1</next></_>
    <_>
      <!-- stage 19 -->
      <trees>
        <_>
          <!-- tree 0 -->
          <_>
            <!-- root node -->
            <feature>
              <rects>
                <_>
                  10 4 8 4 -1.</_>
                <_>
                  14 4 4 4 2.</_></rects>
              <tilted>0</tilted></feature>
            <threshold>-8.8648181408643723e-003</threshold>
            <left_val>7.2126191854476929e-001</left_val>
            <right_val>-4.7808301448822021e-001</right_val></_></_>
        <_>
          <!-- tree 1 -->
          <_>
            <!-- root node -->
            <feature>
              <rects>
                <_>
                  2 1 3 3 -1.</_>
                <_>
                  3 2 1 1 9.</_></rects>
              <tilted>0</tilted></feature>
            <threshold>-2.0871860906481743e-003</threshold>
            <left_val>-6.9489848613739014e-001</left_val>
            <right_val>4.8080980777740479e-001</right_val></_></_>
        <_>
          <!-- tree 2 -->
          <_>
            <!-- root node -->
            <feature>
              <rects>
                <_>
                  1 10 20 4 -1.</_>
                <_>
                  6 10 10 4 2.</_></rects>
              <tilted>0</tilted></feature>
            <threshold>-1.4500220306217670e-002</threshold>
            <left_val>7.6442211866378784e-001</left_val>
            <right_val>-3.9292588829994202e-001</right_val></_></_>
        <_>
          <!-- tree 3 -->
          <_>
            <!-- root node -->
            <feature>
              <rects>
                <_>
                  19 18 2 4 -1.</_>
                <_>
                  18 19 2 2 2.</_></rects>
              <tilted>1</tilted></feature>
            <threshold>3.3469239715486765e-003</threshold>
            <left_val>3.6314409971237183e-001</left_val>
            <right_val>-8.4782302379608154e-001</right_val></_></_>
        <_>
          <!-- tree 4 -->
          <_>
            <!-- root node -->
            <feature>
              <rects>
                <_>
                  12 19 6 4 -1.</_>
                <_>
                  12 19 3 2 2.</_>
                <_>
                  15 21 3 2 2.</_></rects>
              <tilted>0</tilted></feature>
            <threshold>1.1098440154455602e-004</threshold>
            <left_val>5.8877879381179810e-001</left_val>
            <right_val>-5.3214937448501587e-001</right_val></_></_>
        <_>
          <!-- tree 5 -->
          <_>
            <!-- root node -->
            <feature>
              <rects>
                <_>
                  0 2 4 6 -1.</_>
                <_>
                  0 2 2 3 2.</_>
                <_>
                  2 5 2 3 2.</_></rects>
              <tilted>0</tilted></feature>
            <threshold>-2.4694809690117836e-003</threshold>
            <left_val>6.9978898763656616e-001</left_val>
            <right_val>-4.0986269712448120e-001</right_val></_></_></trees>
      <stage_threshold>-9.8742741346359253e-001</stage_threshold>
      <parent>18</parent>
      <next>-1</next></_>
    <_>
      <!-- stage 20 -->
      <trees>
        <_>
          <!-- tree 0 -->
          <_>
            <!-- root node -->
            <feature>
              <rects>
                <_>
                  9 15 3 3 -1.</_>
                <_>
                  9 16 3 1 3.</_></rects>
              <tilted>0</tilted></feature>
            <threshold>9.5340481493622065e-004</threshold>
            <left_val>-3.2915270328521729e-001</left_val>
            <right_val>7.1737778186798096e-001</right_val></_></_>
        <_>
          <!-- tree 1 -->
          <_>
            <!-- root node -->
            <feature>
              <rects>
                <_>
                  1 1 8 6 -1.</_>
                <_>
                  1 1 4 3 2.</_>
                <_>
                  5 4 4 3 2.</_></rects>
              <tilted>0</tilted></feature>
            <threshold>-6.7134988494217396e-003</threshold>
            <left_val>5.5274057388305664e-001</left_val>
            <right_val>-4.6379691362380981e-001</right_val></_></_>
        <_>
          <!-- tree 2 -->
          <_>
            <!-- root node -->
            <feature>
              <rects>
                <_>
                  2 0 3 17 -1.</_>
                <_>
                  3 0 1 17 3.</_></rects>
              <tilted>0</tilted></feature>
            <threshold>-2.4470121134072542e-003</threshold>
            <left_val>-6.4467072486877441e-001</left_val>
            <right_val>3.7700980901718140e-001</right_val></_></_>
        <_>
          <!-- tree 3 -->
          <_>
            <!-- root node -->
            <feature>
              <rects>
                <_>
                  3 18 3 1 -1.</_>
                <_>
                  4 19 1 1 3.</_></rects>
              <tilted>1</tilted></feature>
            <threshold>7.6932692900300026e-004</threshold>
            <left_val>4.1115459799766541e-001</left_val>
            <right_val>-6.3206177949905396e-001</right_val></_></_>
        <_>
          <!-- tree 4 -->
          <_>
            <!-- root node -->
            <feature>
              <rects>
                <_>
                  8 0 1 2 -1.</_>
                <_>
                  8 0 1 1 2.</_></rects>
              <tilted>1</tilted></feature>
            <threshold>-6.9469027221202850e-004</threshold>
            <left_val>-8.2671242952346802e-001</left_val>
            <right_val>3.0808460712432861e-001</right_val></_></_>
        <_>
          <!-- tree 5 -->
          <_>
            <!-- root node -->
            <feature>
              <rects>
                <_>
                  3 21 7 2 -1.</_>
                <_>
                  3 22 7 1 2.</_></rects>
              <tilted>0</tilted></feature>
            <threshold>1.8113410333171487e-003</threshold>
            <left_val>2.6230481266975403e-001</left_val>
            <right_val>-9.5334500074386597e-001</right_val></_></_></trees>
      <stage_threshold>-5.6919282674789429e-001</stage_threshold>
      <parent>19</parent>
      <next>-1</next></_>
    <_>
      <!-- stage 21 -->
      <trees>
        <_>
          <!-- tree 0 -->
          <_>
            <!-- root node -->
            <feature>
              <rects>
                <_>
                  8 20 8 4 -1.</_>
                <_>
                  8 21 8 2 2.</_></rects>
              <tilted>0</tilted></feature>
            <threshold>2.0995140075683594e-003</threshold>
            <left_val>-4.6244749426841736e-001</left_val>
            <right_val>8.1573408842086792e-001</right_val></_></_>
        <_>
          <!-- tree 1 -->
          <_>
            <!-- root node -->
            <feature>
              <rects>
                <_>
                  6 20 2 1 -1.</_>
                <_>
                  6 20 1 1 2.</_></rects>
              <tilted>1</tilted></feature>
            <threshold>2.2892979905009270e-003</threshold>
            <left_val>3.8558289408683777e-001</left_val>
            <right_val>-9.2389339208602905e-001</right_val></_></_>
        <_>
          <!-- tree 2 -->
          <_>
            <!-- root node -->
            <feature>
              <rects>
                <_>
                  3 18 8 2 -1.</_>
                <_>
                  3 18 4 1 2.</_>
                <_>
                  7 19 4 1 2.</_></rects>
              <tilted>0</tilted></feature>
            <threshold>2.5539819616824389e-003</threshold>
            <left_val>-4.0608778595924377e-001</left_val>
            <right_val>8.4792870283126831e-001</right_val></_></_>
        <_>
          <!-- tree 3 -->
          <_>
            <!-- root node -->
            <feature>
              <rects>
                <_>
                  12 1 12 6 -1.</_>
                <_>
                  12 4 12 3 2.</_></rects>
              <tilted>0</tilted></feature>
            <threshold>-1.8548930063843727e-002</threshold>
            <left_val>6.2738829851150513e-001</left_val>
            <right_val>-6.0692459344863892e-001</right_val></_></_>
        <_>
          <!-- tree 4 -->
          <_>
            <!-- root node -->
            <feature>
              <rects>
                <_>
                  14 3 9 1 -1.</_>
                <_>
                  17 3 3 1 3.</_></rects>
              <tilted>0</tilted></feature>
            <threshold>-5.6523678358644247e-004</threshold>
            <left_val>-5.5601191520690918e-001</left_val>
            <right_val>5.8913362026214600e-001</right_val></_></_></trees>
      <stage_threshold>-5.7590687274932861e-001</stage_threshold>
      <parent>20</parent>
      <next>-1</next></_>
    <_>
      <!-- stage 22 -->
      <trees>
        <_>
          <!-- tree 0 -->
          <_>
            <!-- root node -->
            <feature>
              <rects>
                <_>
                  1 1 8 6 -1.</_>
                <_>
                  1 1 4 3 2.</_>
                <_>
                  5 4 4 3 2.</_></rects>
              <tilted>0</tilted></feature>
            <threshold>-1.3060879893600941e-002</threshold>
            <left_val>7.9733788967132568e-001</left_val>
            <right_val>-3.9086169004440308e-001</right_val></_></_>
        <_>
          <!-- tree 1 -->
          <_>
            <!-- root node -->
            <feature>
              <rects>
                <_>
                  5 0 4 1 -1.</_>
                <_>
                  6 0 2 1 2.</_></rects>
              <tilted>0</tilted></feature>
            <threshold>-6.2287732725962996e-004</threshold>
            <left_val>-8.7820327281951904e-001</left_val>
            <right_val>3.4736558794975281e-001</right_val></_></_>
        <_>
          <!-- tree 2 -->
          <_>
            <!-- root node -->
            <feature>
              <rects>
                <_>
                  8 9 1 6 -1.</_>
                <_>
                  8 12 1 3 2.</_></rects>
              <tilted>0</tilted></feature>
            <threshold>-5.6498567573726177e-004</threshold>
            <left_val>5.0662177801132202e-001</left_val>
            <right_val>-5.2371388673782349e-001</right_val></_></_>
        <_>
          <!-- tree 3 -->
          <_>
            <!-- root node -->
            <feature>
              <rects>
                <_>
                  3 3 4 2 -1.</_>
                <_>
                  4 3 2 2 2.</_></rects>
              <tilted>0</tilted></feature>
            <threshold>-1.7204360119649209e-005</threshold>
            <left_val>6.6146308183670044e-001</left_val>
            <right_val>-4.3430450558662415e-001</right_val></_></_>
        <_>
          <!-- tree 4 -->
          <_>
            <!-- root node -->
            <feature>
              <rects>
                <_>
                  9 1 12 1 -1.</_>
                <_>
                  12 1 6 1 2.</_></rects>
              <tilted>0</tilted></feature>
            <threshold>2.0276580471545458e-003</threshold>
            <left_val>-4.9300169944763184e-001</left_val>
            <right_val>6.2424671649932861e-001</right_val></_></_></trees>
      <stage_threshold>-5.0706928968429565e-001</stage_threshold>
      <parent>21</parent>
      <next>-1</next></_>
    <_>
      <!-- stage 23 -->
      <trees>
        <_>
          <!-- tree 0 -->
          <_>
            <!-- root node -->
            <feature>
              <rects>
                <_>
                  0 0 16 2 -1.</_>
                <_>
                  4 0 8 2 2.</_></rects>
              <tilted>0</tilted></feature>
            <threshold>4.0415669791400433e-003</threshold>
            <left_val>-6.1435472965240479e-001</left_val>
            <right_val>5.1136708259582520e-001</right_val></_></_>
        <_>
          <!-- tree 1 -->
          <_>
            <!-- root node -->
            <feature>
              <rects>
                <_>
                  21 0 2 1 -1.</_>
                <_>
                  22 0 1 1 2.</_></rects>
              <tilted>0</tilted></feature>
            <threshold>-1.0859910253202543e-004</threshold>
            <left_val>6.4383769035339355e-001</left_val>
            <right_val>-5.5354362726211548e-001</right_val></_></_>
        <_>
          <!-- tree 2 -->
          <_>
            <!-- root node -->
            <feature>
              <rects>
                <_>
                  8 0 4 1 -1.</_>
                <_>
                  9 0 2 1 2.</_></rects>
              <tilted>0</tilted></feature>
            <threshold>-5.2410631906241179e-004</threshold>
            <left_val>-8.9151781797409058e-001</left_val>
            <right_val>3.9508318901062012e-001</right_val></_></_>
        <_>
          <!-- tree 3 -->
          <_>
            <!-- root node -->
            <feature>
              <rects>
                <_>
                  11 1 10 3 -1.</_>
                <_>
                  10 2 10 1 3.</_></rects>
              <tilted>1</tilted></feature>
            <threshold>8.0083402281161398e-005</threshold>
            <left_val>-5.6032532453536987e-001</left_val>
            <right_val>6.1607807874679565e-001</right_val></_></_>
        <_>
          <!-- tree 4 -->
          <_>
            <!-- root node -->
            <feature>
              <rects>
                <_>
                  17 0 6 8 -1.</_>
                <_>
                  17 0 3 4 2.</_>
                <_>
                  20 4 3 4 2.</_></rects>
              <tilted>0</tilted></feature>
            <threshold>8.2990834489464760e-003</threshold>
            <left_val>-5.6122779846191406e-001</left_val>
            <right_val>6.4397287368774414e-001</right_val></_></_></trees>
      <stage_threshold>-7.7838701009750366e-001</stage_threshold>
      <parent>22</parent>
      <next>-1</next></_>
    <_>
      <!-- stage 24 -->
      <trees>
        <_>
          <!-- tree 0 -->
          <_>
            <!-- root node -->
            <feature>
              <rects>
                <_>
                  16 17 6 4 -1.</_>
                <_>
                  16 17 3 2 2.</_>
                <_>
                  19 19 3 2 2.</_></rects>
              <tilted>0</tilted></feature>
            <threshold>-9.4859267119318247e-004</threshold>
            <left_val>6.5435278415679932e-001</left_val>
            <right_val>-5.3546428680419922e-001</right_val></_></_>
        <_>
          <!-- tree 1 -->
          <_>
            <!-- root node -->
            <feature>
              <rects>
                <_>
                  12 8 10 4 -1.</_>
                <_>
                  12 9 10 2 2.</_></rects>
              <tilted>0</tilted></feature>
            <threshold>-2.9723490588366985e-003</threshold>
            <left_val>-7.3536527156829834e-001</left_val>
            <right_val>5.3225851058959961e-001</right_val></_></_>
        <_>
          <!-- tree 2 -->
          <_>
            <!-- root node -->
            <feature>
              <rects>
                <_>
                  5 17 2 3 -1.</_>
                <_>
                  5 18 2 1 3.</_></rects>
              <tilted>0</tilted></feature>
            <threshold>1.9921449711546302e-004</threshold>
            <left_val>-4.9939191341400146e-001</left_val>
            <right_val>7.8369408845901489e-001</right_val></_></_>
        <_>
          <!-- tree 3 -->
          <_>
            <!-- root node -->
            <feature>
              <rects>
                <_>
                  20 4 4 1 -1.</_>
                <_>
                  22 4 2 1 2.</_></rects>
              <tilted>0</tilted></feature>
            <threshold>-4.2561421287246048e-004</threshold>
            <left_val>7.3793542385101318e-001</left_val>
            <right_val>-5.0106471776962280e-001</right_val></_></_>
        <_>
          <!-- tree 4 -->
          <_>
            <!-- root node -->
            <feature>
              <rects>
                <_>
                  8 12 13 10 -1.</_>
                <_>
                  8 17 13 5 2.</_></rects>
              <tilted>0</tilted></feature>
            <threshold>7.0402249693870544e-002</threshold>
            <left_val>4.5785880088806152e-001</left_val>
            <right_val>-9.3626981973648071e-001</right_val></_></_></trees>
      <stage_threshold>-7.5011521577835083e-001</stage_threshold>
      <parent>23</parent>
      <next>-1</next></_></stages></cascade>
</opencv_storage>
